digraph Tree {
node [shape=box, style="filled, rounded", color="black", fontname="helvetica"] ;
edge [fontname="helvetica"] ;
0 [label=<Renda &le; 1.5<br/>entropy = 1.352<br/>samples = 9<br/>value = [3, 5, 1]<br/>class = Moderado>, fillcolor="#bdf6d5"] ;
1 [label=<Historia de Crédito &le; 0.5<br/>entropy = 0.811<br/>samples = 4<br/>value = [3, 0, 1]<br/>class = Alto>, fillcolor="#eeab7b"] ;
0 -> 1 [labeldistance=2.5, labelangle=45, headlabel="True"] ;
2 [label=<entropy = 0.0<br/>samples = 1<br/>value = [0, 0, 1]<br/>class = Baixo>, fillcolor="#8139e5"] ;
1 -> 2 ;
3 [label=<entropy = 0.0<br/>samples = 3<br/>value = [3, 0, 0]<br/>class = Alto>, fillcolor="#e58139"] ;
1 -> 3 ;
4 [label=<entropy = 0.0<br/>samples = 5<br/>value = [0, 5, 0]<br/>class = Moderado>, fillcolor="#39e581"] ;
0 -> 4 [labeldistance=2.5, labelangle=-45, headlabel="False"] ;
}